0.94361377
0.16319413
-0.6795638
0.81404257
0.29423693
0.6416484
0.85049266
-0.16444153
-1.0768603
0.7603964
0.858501
-0.07703631
-0.7152877
-0.7906969
-0.62303877
0.31692424
0.5500576
1.1143525
0.3719
0.9075166
0.22590567
0.05991569
-0.985977
0.9406193
-1.0871358
0.87743497
0.94569045
1.0246339
0.30343807
-0.5775592
-0.9200125
-0.9409904
-0.89265263
-0.20998847
0.6110528
-0.58223623
-0.76570725
-1.0006101
-0.2109897
-0.88314474
-0.123691976
-0.5758491
1.0740368
0.23170012
-0.27700508
-0.80341244
0.6150954
-0.88361627
-0.9007424
0.7082235
-0.45233408
1.0087432
-0.44014302
0.3811049
-0.48934034
0.8776164
-0.9286929
0.6249902
0.6819094
0.7995068
-0.5197875
-1.0182934
-0.08699137
-1.0305164
-0.485551
-0.86347514
0.78501284
-0.6069086
-0.7457674
-0.7555348
0.5077674
-1.001206
-0.8447332
-0.45006233
0.9921957
-0.58292115
-0.9139495
0.2193966
1.074814
-0.62388855
-1.1129626
-0.24837019
0.5614959
-0.15653825
-0.6929738
-0.93403167
0.73869455
-0.11963708
0.37100476
0.8999321
0.87196565
-0.6271895
0.7359643
0.73850435
-0.66158974
0.3157134
-0.84113264
0.5218356
-1.1173447
0.8881269
-0.65183604
0.73430187
0.86445194
0.65773124
-0.8571397
0.7132927
-1.069056
0.62993896
-0.32228938
-0.16592515
0.21127671
0.44745088
0.5829073
-0.8593481
-0.96758366
0.08709618
0.63630384
-1.0901899
-0.011497849
0.38909715
0.40029436
1.0296191
0.2502064
0.99931014
0.69661295
-0.98747146
-0.4576045
1.1696572
-0.5077793
0.7947509
1.1251571
-1.023845
-0.9006795
0.26843804
0.35898733
