0.023038281
0.04601062
0.003861948
0.025993355
-0.0121087385
-0.017763406
-0.015232757
0.06449213
-0.019632015
0.022875315
-0.07088088
-0.0058122585
0.01940752
-0.0014726998
-0.0044864025
-0.016506266
0.064120665
-0.097357556
0.06611857
-0.07130852
-0.016418828
-0.11941989
-0.0025162878
-0.03429503
0.043675303
0.03950503
0.0696673
-0.1562713
0.0023723543
0.011665168
0.0372572
0.14493634
0.057311345
0.120250285
-0.023951603
-0.06748724
0.04356367
0.06911625
0.041331068
0.012755941
-0.022004578
0.024749182
-0.0012382736
0.009965349
-0.020123597
-0.012966256
0.114181064
-0.07182085
0.0051281746
0.03908602
-0.0017686867
-0.11018201
-0.010436998
-0.03778092
0.04303414
0.04304673
0.01054441
-0.0939577
-0.017700162
0.013465112
0.033484444
-0.056990176
0.042483672
0.036929615
0.05545273
0.011332853
0.020045266
-0.0738713
0.007992561
-0.0014369008
-0.054050244
0.12696573
-0.024247734
0.0026795673
-0.07983225
-0.037868135
0.017960355
0.07836874
0.018315518
-0.011483942
0.005989867
-0.092101045
0.006256247
-0.022280125
0.044549037
0.03587774
-0.034182686
-0.04841312
0.00065384764
-0.022253187
0.037669905
-0.042164013
0.034285236
0.05525862
0.044750307
0.011278818
0.06713847
-0.105157614
0.019543855
0.039467927
