0.04215828
0.059131797
-0.02441736
0.0023982192
-0.05955143
-0.12756914
-0.063594654
0.15822572
-0.04183477
-0.020803751
-0.09084897
0.11628747
-0.0010122694
-0.06781556
-0.06418035
-0.12542222
-0.09168264
0.15985316
0.007850959
-0.012154636
-0.110159084
0.011567411
0.0028178005
-0.01536943
-0.040281575
-0.17869996
-0.17550914
0.059780844
0.029203715
-0.03528072
-0.007848142
0.015612353
-0.030599954
-0.012207611
-0.023851069
-0.12209181
-0.08514315
0.04938108
-0.014479715
-0.00043052735
0.114254884
0.008272554
-0.06582636
0.017427215
0.044572793
-0.037675258
0.0019749915
0.004452937
-0.07609425
0.011176854
-0.022568889
0.0064728768
-0.022674728
0.014921641
-0.013373581
-0.13737892
-0.124402225
0.043448362
-0.008742018
-0.029280258
-0.027688505
-0.005580411
0.0106648095
-0.022431318
-0.016810512
-0.024375359
-0.019500317
0.009409622
0.022761356
0.013575616
-0.053753912
0.033621676
0.018032437
-0.033040054
-0.040576946
-0.04155534
-0.027784422
0.0628787
0.016994646
0.00064138335
-0.097102955
-0.05442787
0.015791606
-0.022854721
-0.0011509134
-0.020803913
-0.044200007
-0.07766534
0.061325982
0.018340068
0.06850097
-0.0065690014
0.011652877
0.054178935
0.015257691
0.09973437
0.068670064
-0.021262003
-0.027014052
-0.02456145
