0.43103078
0.94181013
0.9923144
1.4550725
1.0478235
1.1677073
-1.3479587
1.4285241
0.6446832
1.1341482
1.223143
0.6236897
0.773204
-0.8890957
-1.7083266
-1.2070215
1.0156224
-0.89033985
1.607304
-1.1950184
0.4719668
0.8756885
1.126286
1.2513384
0.9816467
-1.412306
1.2538424
0.39258423
1.2334639
0.97517645
1.200467
-1.614924
0.45875493
-1.034692
1.0690635
-1.4426367
0.9209746
1.4443498
0.6536408
-1.2614018
-0.4768217
1.3627803
1.4589252
-0.5807256
-1.5931046
-0.8869126
0.94040906
-1.0219152
-1.346544
-0.8694926
-1.3798082
1.045136
1.4233845
1.1510028
1.2827382
-0.94383806
0.80138284
-0.75317687
-1.2634615
-1.4686451
-1.376828
-0.5419776
-0.968867
-1.1467035
1.2981224
1.2403467
-1.7576901
0.6979252
-1.2190955
-1.4840086
0.46297875
-1.1240827
-1.5838882
-1.737052
1.0068035
0.87465537
-1.1745805
0.658396
0.254286
1.6108733
1.1605221
0.28682604
1.2335532
1.5276728
-1.7047771
-1.1844767
1.8356315
-1.4778548
0.67971647
1.1623918
-0.43600136
1.1784745
-1.1579701
-0.58441144
-1.231733
1.246669
-1.113464
-1.3817669
-1.1562196
1.1633921
1.5088061
0.7698595
1.0119067
1.4983124
-1.0122981
-0.66171604
-1.0664274
-1.1159488
1.1758753
1.2111645
-1.3865132
-1.1020614
-0.019526875
-1.262342
1.4217455
0.3676332
1.7109654
1.1950165
-1.2096877
-1.1249305
1.2700617
-1.2015887
1.1869366
-1.1062857
-0.8287722
0.79411626
-1.2082541
0.3330597
-1.4266227
-1.1566044
1.3377388
1.0254138
0.9775387
-0.7622375
1.6637762
-0.9847005
0.85012
-0.9862585
0.91356176
-1.3735104
-1.264884
-0.89467025
0.50226504
0.9416882
0.6930042
-0.9798297
1.3368549
1.3968331
-1.062749
1.0985758
-1.2998149
1.3751719
-1.1768916
1.2366675
-1.0609666
0.8733043
0.82946205
0.9418773
-1.1121377
1.2098924
-0.8363161
-1.2204295
1.6323116
-1.6486802
1.1354555
0.8653398
0.103988364
1.0717897
-0.617912
1.3242546
-1.1402571
-0.77191204
-1.1505617
-1.1746383
-1.6417193
1.41114
1.1235269
1.3895252
-0.7400052
-1.1400563
1.251871
0.95918167
-1.2947458
1.1567323
-1.350415
1.6736383
-1.035385
-0.74385333
1.304641
1.1268846
-1.1255621
-1.2482697
-1.0758736
0.95866495
-1.5669748
0.84076333
-1.6912799
1.0396495
-1.338881
0.7575287
1.5498081
1.1713034
0.9440567
-0.97696143
0.88483584
0.27878582
-1.1937395
0.8505059
0.9923291
0.9266474
0.9422252
-0.36816424
-1.6621453
-0.949744
-1.2581232
0.82041186
-1.0833645
0.8211104
1.212461
-1.3076942
-1.5324049
-1.2018402
-0.99068445
1.1758821
1.1771913
1.0703194
-0.61418873
0.3741213
1.1986146
0.8954975
1.0208693
0.907369
0.60486317
-1.2415327
-1.1293324
0.94051194
-1.2540319
-1.3528275
1.0030917
-1.130399
-1.2687757
1.1324759
-1.3917129
1.4212477
-0.18282367
-1.3084097
0.794584
-1.103347
0.62238145
-0.42031202
-0.83701867
-1.1346227
-0.978816
-1.0015599
-1.441467
-1.408309
0.8029001
-0.5028449
-1.1512408
-1.0292238
-0.24708791
-0.39928964
-0.16886692
-0.655278
-0.28559583
-0.4231013
-0.17625572
-0.4834429
0.20299698
0.62122494
