1.3621593
0.6298421
0.87314016
-1.2487868
-0.9911756
1.0627497
-1.1257658
-0.9953546
1.4116572
1.2593913
-0.7413222
-1.4219593
-1.5522379
1.0214157
1.1989187
-1.4013945
-1.1442094
0.9267877
1.3231843
1.0976337
1.3006676
0.71005005
-1.4576616
0.93358237
-1.5198945
0.5599028
-1.0622958
-1.3800105
-0.8743819
-0.9976842
1.3182815
0.8565627
1.3290997
-1.4268901
-0.3823025
-1.7507969
-1.404744
-0.76042676
-1.6402278
-0.4657793
1.7012713
-1.2015862
0.7508177
-0.67786455
-1.183656
-0.9855409
1.2270373
1.0400215
0.8775622
1.2260553
0.42381835
1.1326075
-1.1196162
1.3823911
1.2469552
1.3363284
1.4157199
-0.73181504
-1.3201319
-0.6006855
-1.094217
1.4294237
-1.4976343
0.86696
0.623096
-0.82839954
-1.262995
-1.3194546
1.7397125
1.1493961
1.03078
1.1878483
1.1868062
-1.2418324
-1.367009
0.8143851
1.5956054
-1.0378218
-1.44377
-0.73681766
-1.5570018
1.0955215
-0.97352713
1.1941049
1.1794776
-0.9987683
-1.166803
-1.2172849
-1.3536114
-1.0066264
1.3091565
0.9616954
1.2858891
-1.2169095
1.7275833
0.5593232
-0.8637665
-1.1630776
0.099330954
-1.0995322
-1.2256571
-0.8962945
0.9609563
0.7020227
-1.4400718
1.4996864
0.9574139
0.6383086
1.2656691
1.3172506
1.4334859
-1.0540307
-1.5668489
1.0960453
-1.5405638
0.9355006
0.7130893
0.6187039
1.4878529
-1.1168236
1.5593121
0.9314683
-1.17899
-1.5952951
1.4053428
-1.2734903
-1.0114028
-0.6221397
-0.20275256
1.7096888
-1.1284515
-0.80129707
-1.1705072
1.3467461
1.3628346
1.3553646
0.5131316
1.3328743
-0.06953096
1.302964
-1.9244032
-1.0664432
-1.3778391
0.81596935
-0.9685307
1.2891937
1.2448448
1.0503501
0.6944626
-1.2663192
-1.0395827
-0.41441762
0.7822756
-0.13380076
1.5476699
-0.9024911
1.4910631
1.0673113
1.4840686
1.3389379
-1.25603
1.2918934
1.1745019
0.24280754
1.566444
1.1565726
-1.137672
0.4483554
1.2449934
0.4489232
1.0742477
-1.2857405
-1.1118997
0.3300566
1.0575261
-1.5450895
1.0439805
0.820045
0.9295078
-1.1998453
0.8516395
-0.9900604
1.3326916
1.5676354
-0.8037602
1.100013
0.44253182
0.9495745
-1.2682955
-1.0503383
0.90450996
1.1626861
-0.88970286
-1.4847417
0.5305184
1.042768
1.2681273
1.408574
-0.4578206
-1.0047207
-1.0166914
-0.9026532
1.129273
1.6015751
-0.85123646
-1.2136338
-1.1514672
-1.5263319
0.80726355
1.0256037
-1.2284662
0.9500847
1.2886246
-0.46519887
-0.96583915
1.0909204
-1.1090326
-1.2745067
-1.2795368
1.1213088
1.5368911
0.9112447
-1.547011
-0.8832477
1.340218
-1.5090294
-0.5919541
-0.992683
-1.5053467
-1.3405571
-1.2972662
-0.66974396
1.2492387
-1.4851704
-1.1065253
-1.3524643
-1.2231374
0.5612016
1.1693258
0.502904
1.2195988
-1.2333714
1.2024525
-1.2052909
-1.1489514
1.3862897
0.637367
0.6203206
1.2979443
-1.1533674
-1.6812856
-0.62218463
-1.1308097
1.103164
0.7720892
-1.383444
1.3426001
0.72532916
-1.1719649
-1.1477568
-1.1815331
0.9167218
1.5762624
-1.224959
1.5357836
-1.5079246
-0.82991624
-0.98569745
-1.1856076
1.0503745
