-0.32517
0.6599941
0.95272577
0.7893002
-0.63818336
0.50720376
-0.8007207
1.0528053
-0.8657324
-0.05825437
-0.052318323
0.9126545
0.16493855
-0.3410835
-0.81122774
-0.09362253
-0.7336809
-1.1092331
-0.49393952
-0.5186241
0.8837058
-0.8704405
-0.4989659
-0.8489962
-0.6221901
0.67815614
-0.23770514
0.6819009
0.7765014
1.0795512
-0.9936338
-0.77288055
0.35625434
-0.90684164
0.3378973
0.106622756
0.9231575
-0.90903366
0.31087247
0.7087696
-0.6135147
-0.20492616
-0.97113466
0.717812
0.69429237
0.7503863
0.9475267
0.62989587
-0.059324197
0.8242713
-0.6549753
0.69029254
0.6785931
-0.95164096
0.22119525
-0.5701789
-0.16583195
1.0542253
0.2529394
0.9151806
-0.4356472
-0.37877503
-0.84949964
0.9202028
-0.95707047
-0.061505523
0.37857294
-0.107477635
1.2130474
0.9078946
-0.8338806
0.9836742
-0.7729505
0.54840595
-0.5703461
1.0216508
-0.38384953
-0.9900469
-0.4517202
0.79065305
-0.90568924
1.0378023
0.46608695
0.7981549
0.6128167
1.1007441
0.29858387
-0.49909103
-0.13414182
-0.813474
0.7564269
-0.76548815
0.83800447
0.63574404
-0.3426222
0.7541255
0.84449375
-0.8256507
0.8195905
-0.7312799
-1.1541508
-0.16458501
0.07579142
0.21723765
-0.056145016
0.82444996
0.4481085
0.8856879
-0.80163044
-0.6948651
-0.671848
-0.9796523
-0.055911858
0.31794736
1.0238434
-0.8036139
0.54606926
-0.7172336
-0.7903069
-0.6929143
0.3112508
-1.1662984
-0.25612876
0.06280536
0.38163072
-0.7659586
-0.85053635
0.52985626
-0.67641175
-1.1036742
0.026322257
-0.013260495
0.035094168
-0.03967502
-0.047867775
