1.878254
1.506359
2.402529
1.186137
-0.138929
-1.457926
-0.322259
0.594963
-1.965664
1.293601
-0.170476
0.980746
-0.315506
2.508255
-1.672143
0.009081
-0.925518
1.216797
2.222228
0.073730
2.195874
0.118023
1.120501
0.196813
-1.726581
-1.655841
0.796129
1.698541
0.706846
1.668418
-0.231193
2.365294
0.023789
-2.402889
0.785115
1.133862
-1.375548
2.027343
-1.036835
-0.316785
1.558300
-3.283274
-2.128383
-2.337767
1.506174
2.033728
1.046822
-1.348767
-1.045020
2.275079
1.165079
-2.947917
0.443679
-0.125206
1.979556
-1.424456
-0.244334
0.132446
-0.843395
-2.351350
2.391577
-1.071874
0.551198
1.818014
1.893332
-2.558238
2.128272
0.037308
0.465593
-0.386478
1.392463
-0.091370
0.136946
-3.183834
1.508112
-1.158051
0.620346
-1.313807
-1.942888
-0.881596
-0.715495
-2.314149
0.122450
1.108908
-1.544026
3.274833
1.550007
-0.966067
0.521588
-0.141346
0.854404
0.049326
2.267501
0.076622
2.631761
1.189280
-1.266307
-1.992611
-1.436473
-0.681743
-2.028405
0.346416
1.256917
0.667853
-0.744524
-1.140723
-2.834657
0.859056
-2.320584
-0.706705
0.884380
-1.110551
-1.260768
1.186649
-2.416920
-0.839375
1.360633
0.736031
-1.301981
1.015252
1.521708
-3.193354
-0.283381
0.367750
-0.625278
-1.361443
1.542639
-1.919679
0.691569
0.279680
1.326871
2.477305
0.100373
-0.724160
-1.713887
