0.986608
-0.617798
0.774511
-0.883710
0.605188
-0.967069
0.863866
-0.728215
-0.279247
-0.422880
-0.393879
1.120475
-0.480176
-0.317927
0.542326
0.650974
0.683866
-0.825295
0.920838
-0.633840
-0.407318
-0.799476
-0.759894
-0.653267
0.872176
-0.734831
-0.961214
-0.714304
0.815146
-0.460644
1.183194
-0.348025
-0.934309
0.904093
-0.704785
-0.282305
-0.863462
0.622106
-0.462466
0.349167
-0.313158
0.687757
0.809163
-0.653088
-0.792348
0.835696
-0.998776
0.886429
0.804428
0.590425
-0.613418
0.460728
0.696218
0.879476
-0.785379
0.812827
0.475902
-1.058004
-0.380385
-0.888073
-0.664416
0.858367
-0.714824
-0.935620
0.585991
-0.777221
-0.917263
0.912799
0.491059
-0.227075
0.818278
-0.871705
0.317561
0.463382
0.255973
-0.822931
0.967804
-0.869129
-0.880511
0.524643
-0.805730
-0.463569
-0.809167
1.086124
0.810347
-0.928635
-0.075599
-0.680082
-0.755159
-0.124019
0.918223
0.296063
-0.751775
-1.137879
-0.550822
-0.613182
-0.918829
0.855622
-0.618777
0.232945
-0.303001
-0.842851
0.731384
-0.225016
0.573036
0.744838
0.694179
-0.524908
0.870201
-0.525121
-0.476465
0.784387
-0.660975
0.796198
-0.598235
-0.709841
-0.872738
0.686917
-0.289461
0.490382
0.579464
-0.877107
1.066068
-0.515142
0.815777
-0.609315
-0.391671
0.884216
0.602750
-0.764274
-0.444700
-0.882076
0.762697
-0.386731
-0.948772
-0.280197
-1.140830
-0.989035
0.968694
0.540707
0.156429
0.287198
0.543282
-0.654944
-0.586782
0.994741
0.619232
-0.879654
-0.808325
0.887651
-0.609945
-1.137524
-0.642601
1.274772
0.373580
0.530350
0.427665
-0.583929
0.817242
-0.734216
0.633583
-1.053281
1.175279
-0.649571
-0.627489
-0.399512
-0.793676
1.022947
-0.483086
0.706872
0.852943
-0.024351
0.788007
1.119715
-0.962032
-0.819179
0.861333
0.520372
-0.547671
0.516212
-0.642876
0.926327
0.785699
-0.533246
-0.479627
-0.693573
-0.984628
-0.794726
-0.864597
0.799277
1.153369
-0.909173
0.372535
0.805359
0.259522
0.814101
0.794980
-0.575695
-0.645423
-0.908821
-0.639898
-0.824600
0.700176
-0.890051
0.606538
0.837952
0.341188
-0.787932
0.300575
-0.626005
-0.666677
0.358771
-0.938856
0.585573
-1.001621
0.398911
0.633352
-1.049998
-0.400942
0.762481
-0.225499
0.834007
-0.632834
1.167989
0.506623
0.473319
-0.975062
0.496154
0.834276
-0.910289
-0.430775
1.086888
1.027240
-0.683769
0.635348
0.370283
0.331389
0.689155
0.840530
-0.894920
-0.549394
0.424481
-0.969068
0.538876
-0.443886
0.933014
0.627569
0.975257
-0.615755
-0.702681
0.720821
-1.023339
-0.982546
-0.530617
0.593622
-0.623889
-0.941557
-0.845722
-0.763182
0.430590
-0.547374
0.860209
1.010384
0.625285
-0.663063
0.434281
0.653042
1.060686
-0.396481
-0.046261
